/*
 * This file defines the 4-point convolution kernel to be used for cubic
 * interpolation of futs.  It consists of two cubic polynomial lobes with
 * continuous zeroeth and first derivatives:
 *      f(x)    = 1 + 0*x - 2.5*(x*x) + 1.5*(x*x*x) for 0 < x < 1
 *              = 2 - 4*x + 2.5*(x*x) -  .5*(x*x*x) for 1 < x < 2
 *
 * This file was created with the program 'pcc_make'.
 */
#define PCC_FRACBITS	14	/* fractional precision */
#define PCC_SRBITS	8	/* log2 of sample rate */
#define PCC_SR	(1<<PCC_SRBITS)	/* kernel sample rate */

#ifndef FUT_ALLOCEXTERN
extern int16	fut_pcc_kernel[2*PCC_SR+1];
#else
int16	fut_pcc_kernel[2*PCC_SR+1] = {

	 16384, 16383, 16381, 16378, 16374, 16368, 16361, 16353,
	 16344, 16334, 16322, 16310, 16296, 16281, 16265, 16248,
	 16230, 16210, 16190, 16168, 16145, 16121, 16097, 16071,
	 16044, 16016, 15987, 15957, 15926, 15894, 15861, 15827,
	 15792, 15756, 15719, 15681, 15642, 15602, 15561, 15520,
	 15477, 15434, 15390, 15344, 15298, 15251, 15204, 15155,
	 15106, 15055, 15004, 14952, 14899, 14846, 14792, 14737,
	 14681, 14624, 14567, 14509, 14450, 14390, 14330, 14269,
	 14208, 14145, 14082, 14018, 13954, 13889, 13823, 13757,
	 13690, 13623, 13555, 13486, 13417, 13347, 13276, 13205,
	 13134, 13061, 12989, 12915, 12842, 12767, 12693, 12617,
	 12542, 12466, 12389, 12312, 12234, 12156, 12078, 11999,
	 11920, 11840, 11760, 11679, 11598, 11517, 11436, 11354,
	 11271, 11189, 11106, 11022, 10939, 10855, 10771, 10686,
	 10602, 10516, 10431, 10346, 10260, 10174, 10088, 10001,
	  9915,  9828,  9741,  9654,  9566,  9479,  9391,  9303,
	  9216,  9127,  9039,  8951,  8863,  8774,  8686,  8597,
	  8508,  8420,  8331,  8242,  8153,  8064,  7975,  7886,
	  7798,  7709,  7620,  7531,  7442,  7354,  7265,  7176,
	  7088,  6999,  6911,  6823,  6735,  6647,  6559,  6471,
	  6384,  6296,  6209,  6122,  6035,  5948,  5862,  5775,
	  5689,  5603,  5518,  5432,  5347,  5262,  5178,  5094,
	  5010,  4926,  4842,  4759,  4676,  4594,  4512,  4430,
	  4349,  4268,  4187,  4107,  4027,  3947,  3868,  3790,
	  3712,  3634,  3556,  3480,  3403,  3327,  3252,  3177,
	  3102,  3028,  2955,  2882,  2810,  2738,  2666,  2596,
	  2526,  2456,  2387,  2319,  2251,  2184,  2117,  2051,
	  1986,  1921,  1857,  1794,  1731,  1669,  1608,  1547,
	  1488,  1428,  1370,  1312,  1255,  1199,  1144,  1089,
	  1035,   982,   930,   878,   828,   778,   729,   681,
	   634,   587,   541,   497,   453,   410,   368,   327,
	   287,   247,   209,   172,   135,   100,    65,    32,
	     0,   -31,   -63,   -93,  -124,  -153,  -183,  -211,
	  -240,  -268,  -295,  -322,  -348,  -374,  -400,  -425,
	  -450,  -474,  -497,  -521,  -543,  -566,  -588,  -609,
	  -630,  -651,  -671,  -691,  -710,  -729,  -748,  -766,
	  -784,  -801,  -818,  -834,  -850,  -866,  -881,  -896,
	  -911,  -925,  -939,  -952,  -965,  -978,  -990, -1002,
	 -1014, -1025, -1036, -1046, -1056, -1066, -1075, -1084,
	 -1093, -1102, -1110, -1118, -1125, -1132, -1139, -1145,
	 -1152, -1157, -1163, -1168, -1173, -1178, -1182, -1186,
	 -1190, -1193, -1196, -1199, -1202, -1204, -1206, -1208,
	 -1210, -1211, -1212, -1212, -1213, -1213, -1213, -1213,
	 -1212, -1211, -1210, -1209, -1208, -1206, -1204, -1202,
	 -1200, -1197, -1194, -1191, -1188, -1184, -1181, -1177,
	 -1173, -1168, -1164, -1159, -1155, -1150, -1144, -1139,
	 -1134, -1128, -1122, -1116, -1110, -1103, -1097, -1090,
	 -1083, -1076, -1069, -1062, -1054, -1047, -1039, -1031,
	 -1024, -1015, -1007,  -999,  -991,  -982,  -973,  -965,
	  -956,  -947,  -938,  -929,  -919,  -910,  -901,  -891,
	  -882,  -872,  -862,  -852,  -842,  -832,  -822,  -812,
	  -802,  -792,  -782,  -772,  -761,  -751,  -740,  -730,
	  -720,  -709,  -698,  -688,  -677,  -667,  -656,  -645,
	  -635,  -624,  -613,  -603,  -592,  -581,  -571,  -560,
	  -550,  -539,  -528,  -518,  -507,  -497,  -486,  -476,
	  -465,  -455,  -445,  -434,  -424,  -414,  -404,  -394,
	  -384,  -374,  -364,  -354,  -344,  -334,  -325,  -315,
	  -306,  -296,  -287,  -278,  -269,  -260,  -251,  -242,
	  -234,  -225,  -216,  -208,  -200,  -192,  -184,  -176,
	  -168,  -161,  -153,  -146,  -139,  -132,  -125,  -118,
	  -112,  -105,   -99,   -93,   -87,   -81,   -75,   -70,
	   -65,   -60,   -55,   -50,   -46,   -41,   -37,   -33,
	   -30,   -26,   -23,   -20,   -17,   -14,   -12,    -9,
	    -7,    -5,    -4,    -3,    -1,    -1,     0,     0,	     0
};
#endif /* FUT_ALLOCEXTERN */

